digraph Tree {
node [shape=box, style="filled, rounded", color="black", fontname=helvetica] ;
edge [fontname=helvetica] ;
0 [label="petal width (cm) <= 0.75\ngini = 0.66\nsamples = 98\nvalue = [42, 58, 50]\nclass = versicolor", fillcolor="#effdf5"] ;
1 [label="gini = 0.0\nsamples = 31\nvalue = [42, 0, 0]\nclass = setosa", fillcolor="#e58139"] ;
0 -> 1 [labeldistance=2.5, labelangle=45, headlabel="True"] ;
2 [label="sepal length (cm) <= 6.15\ngini = 0.5\nsamples = 67\nvalue = [0, 58, 50]\nclass = versicolor", fillcolor="#e4fbee"] ;
0 -> 2 [labeldistance=2.5, labelangle=-45, headlabel="False"] ;
3 [label="sepal width (cm) <= 2.85\ngini = 0.33\nsamples = 30\nvalue = [0, 37, 10]\nclass = versicolor", fillcolor="#6feca3"] ;
2 -> 3 ;
4 [label="petal width (cm) <= 1.35\ngini = 0.42\nsamples = 20\nvalue = [0, 24, 10]\nclass = versicolor", fillcolor="#8bf0b5"] ;
3 -> 4 ;
5 [label="gini = 0.0\nsamples = 14\nvalue = [0, 22, 0]\nclass = versicolor", fillcolor="#39e581"] ;
4 -> 5 ;
6 [label="petal width (cm) <= 1.75\ngini = 0.28\nsamples = 6\nvalue = [0, 2, 10]\nclass = virginica", fillcolor="#9a61ea"] ;
4 -> 6 ;
7 [label="sepal width (cm) <= 2.65\ngini = 0.48\nsamples = 3\nvalue = [0, 2, 3]\nclass = virginica", fillcolor="#d5bdf6"] ;
6 -> 7 ;
8 [label="gini = 0.0\nsamples = 2\nvalue = [0, 0, 3]\nclass = virginica", fillcolor="#8139e5"] ;
7 -> 8 ;
9 [label="gini = 0.0\nsamples = 1\nvalue = [0, 2, 0]\nclass = versicolor", fillcolor="#39e581"] ;
7 -> 9 ;
10 [label="gini = 0.0\nsamples = 3\nvalue = [0, 0, 7]\nclass = virginica", fillcolor="#8139e5"] ;
6 -> 10 ;
11 [label="gini = 0.0\nsamples = 10\nvalue = [0, 13, 0]\nclass = versicolor", fillcolor="#39e581"] ;
3 -> 11 ;
12 [label="sepal length (cm) <= 7.05\ngini = 0.45\nsamples = 37\nvalue = [0, 21, 40]\nclass = virginica", fillcolor="#c3a1f3"] ;
2 -> 12 ;
13 [label="sepal length (cm) <= 6.55\ngini = 0.5\nsamples = 29\nvalue = [0, 21, 25]\nclass = virginica", fillcolor="#ebdffb"] ;
12 -> 13 ;
14 [label="petal length (cm) <= 4.7\ngini = 0.36\nsamples = 15\nvalue = [0, 5, 16]\nclass = virginica", fillcolor="#a877ed"] ;
13 -> 14 ;
15 [label="gini = 0.0\nsamples = 3\nvalue = [0, 5, 0]\nclass = versicolor", fillcolor="#39e581"] ;
14 -> 15 ;
16 [label="gini = 0.0\nsamples = 12\nvalue = [0, 0, 16]\nclass = virginica", fillcolor="#8139e5"] ;
14 -> 16 ;
17 [label="petal length (cm) <= 5.1\ngini = 0.46\nsamples = 14\nvalue = [0, 16, 9]\nclass = versicolor", fillcolor="#a8f4c8"] ;
13 -> 17 ;
18 [label="gini = 0.0\nsamples = 8\nvalue = [0, 16, 0]\nclass = versicolor", fillcolor="#39e581"] ;
17 -> 18 ;
19 [label="gini = 0.0\nsamples = 6\nvalue = [0, 0, 9]\nclass = virginica", fillcolor="#8139e5"] ;
17 -> 19 ;
20 [label="gini = 0.0\nsamples = 8\nvalue = [0, 0, 15]\nclass = virginica", fillcolor="#8139e5"] ;
12 -> 20 ;
}